digraph Tree {
node [shape=box, style="filled, rounded", color="black", fontname=helvetica] ;
edge [fontname=helvetica] ;
0 [label="X[1] <= 44.5\nentropy = 0.81\nsamples = 15556\nvalue = [11709, 3847]", fillcolor="#e58139ab"] ;
1 [label="X[0] <= 10.5\nentropy = 1.0\nsamples = 3826\nvalue = [1845, 1981]", fillcolor="#399de512"] ;
0 -> 1 [labeldistance=2.5, labelangle=45, headlabel="True"] ;
2 [label="X[1] <= 39.5\nentropy = 0.98\nsamples = 2650\nvalue = [1553, 1097]", fillcolor="#e581394b"] ;
1 -> 2 ;
3 [label="X[0] <= 7.5\nentropy = 1.0\nsamples = 1604\nvalue = [836, 768]", fillcolor="#e5813915"] ;
2 -> 3 ;
4 [label="X[0] <= 4.5\nentropy = 0.96\nsamples = 676\nvalue = [418, 258]", fillcolor="#e5813962"] ;
3 -> 4 ;
5 [label="entropy = 0.82\nsamples = 118\nvalue = [88, 30]", fillcolor="#e58139a8"] ;
4 -> 5 ;
6 [label="entropy = 0.98\nsamples = 558\nvalue = [330, 228]", fillcolor="#e581394f"] ;
4 -> 6 ;
7 [label="X[1] <= 19.5\nentropy = 0.99\nsamples = 928\nvalue = [418, 510]", fillcolor="#399de52e"] ;
3 -> 7 ;
8 [label="entropy = 0.0\nsamples = 5\nvalue = [5, 0]", fillcolor="#e58139ff"] ;
7 -> 8 ;
9 [label="entropy = 0.99\nsamples = 923\nvalue = [413, 510]", fillcolor="#399de530"] ;
7 -> 9 ;
10 [label="X[0] <= 6.5\nentropy = 0.9\nsamples = 1046\nvalue = [717, 329]", fillcolor="#e581398a"] ;
2 -> 10 ;
11 [label="X[0] <= 2.5\nentropy = 0.72\nsamples = 330\nvalue = [264, 66]", fillcolor="#e58139bf"] ;
10 -> 11 ;
12 [label="entropy = 0.0\nsamples = 12\nvalue = [12, 0]", fillcolor="#e58139ff"] ;
11 -> 12 ;
13 [label="entropy = 0.74\nsamples = 318\nvalue = [252, 66]", fillcolor="#e58139bc"] ;
11 -> 13 ;
14 [label="X[3] <= 12553.35\nentropy = 0.95\nsamples = 716\nvalue = [453, 263]", fillcolor="#e581396b"] ;
10 -> 14 ;
15 [label="entropy = 0.96\nsamples = 694\nvalue = [432, 262]", fillcolor="#e5813964"] ;
14 -> 15 ;
16 [label="entropy = 0.27\nsamples = 22\nvalue = [21, 1]", fillcolor="#e58139f3"] ;
14 -> 16 ;
17 [label="X[0] <= 14.5\nentropy = 0.81\nsamples = 1176\nvalue = [292, 884]", fillcolor="#399de5ab"] ;
1 -> 17 ;
18 [label="X[1] <= 39.5\nentropy = 0.89\nsamples = 833\nvalue = [259, 574]", fillcolor="#399de58c"] ;
17 -> 18 ;
19 [label="X[3] <= 13776.67\nentropy = 0.81\nsamples = 537\nvalue = [133, 404]", fillcolor="#399de5ab"] ;
18 -> 19 ;
20 [label="entropy = 0.79\nsamples = 525\nvalue = [125, 400]", fillcolor="#399de5af"] ;
19 -> 20 ;
21 [label="entropy = 0.92\nsamples = 12\nvalue = [8, 4]", fillcolor="#e581397f"] ;
19 -> 21 ;
22 [label="X[2] <= 13.5\nentropy = 0.98\nsamples = 296\nvalue = [126, 170]", fillcolor="#399de542"] ;
18 -> 22 ;
23 [label="entropy = 0.77\nsamples = 49\nvalue = [11, 38]", fillcolor="#399de5b5"] ;
22 -> 23 ;
24 [label="entropy = 1.0\nsamples = 247\nvalue = [115, 132]", fillcolor="#399de521"] ;
22 -> 24 ;
25 [label="X[0] <= 18.5\nentropy = 0.46\nsamples = 343\nvalue = [33, 310]", fillcolor="#399de5e4"] ;
17 -> 25 ;
26 [label="X[1] <= 37.5\nentropy = 0.59\nsamples = 231\nvalue = [33, 198]", fillcolor="#399de5d4"] ;
25 -> 26 ;
27 [label="entropy = 0.37\nsamples = 127\nvalue = [9, 118]", fillcolor="#399de5ec"] ;
26 -> 27 ;
28 [label="entropy = 0.78\nsamples = 104\nvalue = [24, 80]", fillcolor="#399de5b3"] ;
26 -> 28 ;
29 [label="entropy = 0.0\nsamples = 112\nvalue = [0, 112]", fillcolor="#399de5ff"] ;
25 -> 29 ;
30 [label="X[0] <= 10.5\nentropy = 0.63\nsamples = 11730\nvalue = [9864, 1866]", fillcolor="#e58139cf"] ;
0 -> 30 [labeldistance=2.5, labelangle=-45, headlabel="False"] ;
31 [label="X[0] <= 7.5\nentropy = 0.5\nsamples = 9115\nvalue = [8113, 1002]", fillcolor="#e58139e0"] ;
30 -> 31 ;
32 [label="X[1] <= 45.5\nentropy = 0.37\nsamples = 4642\nvalue = [4310, 332]", fillcolor="#e58139eb"] ;
31 -> 32 ;
33 [label="entropy = 0.0\nsamples = 142\nvalue = [142, 0]", fillcolor="#e58139ff"] ;
32 -> 33 ;
34 [label="X[0] <= 4.5\nentropy = 0.38\nsamples = 4500\nvalue = [4168, 332]", fillcolor="#e58139eb"] ;
32 -> 34 ;
35 [label="entropy = 0.25\nsamples = 968\nvalue = [927, 41]", fillcolor="#e58139f4"] ;
34 -> 35 ;
36 [label="entropy = 0.41\nsamples = 3532\nvalue = [3241, 291]", fillcolor="#e58139e8"] ;
34 -> 36 ;
37 [label="X[1] <= 45.5\nentropy = 0.61\nsamples = 4473\nvalue = [3803, 670]", fillcolor="#e58139d2"] ;
31 -> 37 ;
38 [label="entropy = 0.0\nsamples = 108\nvalue = [108, 0]", fillcolor="#e58139ff"] ;
37 -> 38 ;
39 [label="X[1] <= 53.4\nentropy = 0.62\nsamples = 4365\nvalue = [3695, 670]", fillcolor="#e58139d1"] ;
37 -> 39 ;
40 [label="entropy = 0.54\nsamples = 1212\nvalue = [1062, 150]", fillcolor="#e58139db"] ;
39 -> 40 ;
41 [label="entropy = 0.65\nsamples = 3153\nvalue = [2633, 520]", fillcolor="#e58139cd"] ;
39 -> 41 ;
42 [label="X[0] <= 13.5\nentropy = 0.92\nsamples = 2615\nvalue = [1751, 864]", fillcolor="#e5813981"] ;
30 -> 42 ;
43 [label="X[0] <= 12.5\nentropy = 0.83\nsamples = 1927\nvalue = [1420, 507]", fillcolor="#e58139a4"] ;
42 -> 43 ;
44 [label="X[3] <= 30013.33\nentropy = 0.8\nsamples = 1507\nvalue = [1143, 364]", fillcolor="#e58139ae"] ;
43 -> 44 ;
45 [label="entropy = 0.8\nsamples = 1488\nvalue = [1125, 363]", fillcolor="#e58139ad"] ;
44 -> 45 ;
46 [label="entropy = 0.3\nsamples = 19\nvalue = [18, 1]", fillcolor="#e58139f1"] ;
44 -> 46 ;
47 [label="X[2] <= 51.5\nentropy = 0.93\nsamples = 420\nvalue = [277, 143]", fillcolor="#e581397b"] ;
43 -> 47 ;
48 [label="entropy = 0.91\nsamples = 397\nvalue = [269, 128]", fillcolor="#e5813986"] ;
47 -> 48 ;
49 [label="entropy = 0.93\nsamples = 23\nvalue = [8, 15]", fillcolor="#399de577"] ;
47 -> 49 ;
50 [label="X[0] <= 18.5\nentropy = 1.0\nsamples = 688\nvalue = [331, 357]", fillcolor="#399de513"] ;
42 -> 50 ;
51 [label="X[1] <= 59.5\nentropy = 1.0\nsamples = 628\nvalue = [329, 299]", fillcolor="#e5813917"] ;
50 -> 51 ;
52 [label="entropy = 1.0\nsamples = 374\nvalue = [173, 201]", fillcolor="#399de524"] ;
51 -> 52 ;
53 [label="entropy = 0.96\nsamples = 254\nvalue = [156, 98]", fillcolor="#e581395f"] ;
51 -> 53 ;
54 [label="X[2] <= 15.0\nentropy = 0.21\nsamples = 60\nvalue = [2, 58]", fillcolor="#399de5f6"] ;
50 -> 54 ;
55 [label="entropy = 0.62\nsamples = 13\nvalue = [2, 11]", fillcolor="#399de5d1"] ;
54 -> 55 ;
56 [label="entropy = 0.0\nsamples = 47\nvalue = [0, 47]", fillcolor="#399de5ff"] ;
54 -> 56 ;
}